
\data\
ngram 1=13
ngram 2=16
ngram 3=0

\1-grams:
-0.9542425	</s>
-99	<s>	-0.3679768
-0.9542425	AA	-0.3357921
-1.255273	B	-0.2762064
-1.255273	EL	-0.2762064
-1.255273	EM	-0.2762064
-1.255273	G	-0.2498775
-1.255273	IH	-0.1918855
-1.255273	M	-0.2498775
-1.255273	NG	-0.2498775
-1.255273	S	-0.2498775
-0.6532125	SIL	-0.5898255
-0.9542425	U	-0.4259687

\2-grams:
-0.1760913	<s> SIL
-0.4771213	AA NG
-0.4771213	AA SIL
-0.30103	B IH
-0.30103	EL S
-0.30103	EM B
-0.30103	G U
-0.30103	IH SIL
-0.30103	M AA
-0.30103	NG AA
-0.30103	S U
-0.39794	SIL </s>
-0.69897	SIL G
-0.69897	SIL M
-0.4771213	U EL
-0.4771213	U EM

\3-grams:

\end\
